aster -0.1960 -0.2278 -0.0818 0.0800 -0.0778 -0.0697 -0.0870 -0.2115 0.0791 -0.1406 -0.2067 0.0216 0.1076 -0.2043 -0.1335 0.0167 0.0873 -0.0988 0.0562 -0.0130 -0.2254 -0.0247 -0.2004 0.1576 -0.1958 0.0727 -0.2471 0.3852 -0.1062 0.1625 0.0429 0.1022 -0.0311 -0.0915 -0.0930 -0.0297 -0.0303 0.0185 0.0309 -0.1490 -0.1857 -0.1773 -0.1242 -0.0607 -0.3272 0.1809 0.0060 -0.2994 0.0009 -0.0912 0.1264 -0.2427 -0.8339 -0.1893 -0.1558 0.0461 -0.0480 -0.1634 0.1780 -0.1119 0.0805 0.0973 -0.1675 0.0981 -0.1717 -0.2044 -0.1687 0.1493 0.0849 0.0124 0.1687 0.0179 -0.0155 0.0470 -0.1209 0.1304 0.1384 -0.1608 0.0367 -0.2406 -0.0169 -0.0258 0.0155 -0.0850 -0.0858 -0.1019 0.1213 -0.0828 0.1710 0.0376 -0.0881 0.1212 -0.2236 0.0411 0.0454 0.3639 -0.0655 0.0042 -0.0872 0.0949 -0.1084 0.0161 -0.0746 -0.0251 0.0815 0.1563 0.0183 0.0118 0.0636 0.1340 0.0135 0.1984 0.0217 0.2458 -0.1162 0.2827 -0.1356 0.0361 -0.0900 -0.1259 -0.1153 0.1160 0.0973 -0.1853 -0.1189 0.2177 -0.1691 -0.1737 0.0406 -0.1863 0.2499 0.1164 0.1933 -0.1025 0.0700 0.0881 0.2856 -0.0356 -0.2244 0.0499 -0.1964 -0.0195 0.0588 0.1624 -0.0976 0.0073 0.3166 0.1001 -0.0433 -0.1001 -0.2655 0.1514 0.1014 -0.2327 -0.1912 0.1531 0.0702 0.2120 -0.0428 0.0704 0.1347 0.0117 0.1359 0.1278 0.0659 -0.0290 0.1853 0.0886 -0.1547 0.1236 -0.0403 -0.1287 0.0958 0.2205 0.0686 0.0377 0.1318 0.0158 -0.2293 -0.0764 0.0066 0.0587 -0.1638 -0.2285 -0.1420 -0.0673 0.0727 0.1015 -0.0243 0.2549 0.1164 0.0477 0.1677 -0.0189 0.2301 -0.2419 -0.3538 0.0287 -0.1306 0.0701 -0.1889 -0.1386 0.1105 0.1621 0.1120 0.0717 0.0825 -0.0723 0.1131 0.2064 -0.1408 0.1283 -0.0696 0.0269 0.0582 0.2587 0.0502 -0.1216 -0.0419 0.2749 -0.2314 0.0733 -0.0784 -0.1412 0.0374 -0.2035 -0.1144 0.0658 -0.2828 -0.0278 -0.0378 0.1301 0.2244 -0.0892 -0.1858 -0.3494 -0.0662 -0.3837 -0.0463 0.0039 0.1540 0.2046 0.1325 0.0500 0.2357 -0.0541 0.0001 -0.0306 0.1502 0.3635 0.0879 0.0226 0.1216 0.0149 0.2724 -0.0492 -0.0065 -0.1068 -0.0961 0.1169 -0.1507 -0.2354 -0.0128 -0.1620 -0.7448 0.0376 -0.1496 0.0434 -0.1293 0.0822 -0.1044 0.0398 -0.1365 0.0368 0.0836 0.1913 0.3331 0.2234 -0.0924 0.0455 -0.1931 -0.2039 -0.2835 0.0012 0.2494 0.2182 0.1066 -0.1443 0.0785 -0.0383 0.0486 0.0461 -0.1292 0.4099 -0.0158 -0.0360 -0.0947 -0.2054 -0.0633 -0.0178
clover -0.0041 0.0183 -0.0693 -0.0017 -0.0706 0.0445 -0.1805 -0.0738 -0.0216 -0.1392 -0.0990 -0.0464 0.0620 0.0159 0.1257 -0.1853 -0.1722 -0.0057 -0.0951 0.0233 -0.3165 0.0606 0.0794 -0.0461 -0.0803 0.1317 0.0080 0.1409 0.1270 0.2046 0.1016 -0.1098 -0.0573 -0.1121 -0.0649 -0.1339 0.1709 0.0805 -0.0677 -0.0172 0.0046 -0.1250 -0.0669 -0.1897 -0.0131 0.1145 0.0630 0.0371 -0.1602 -0.2239 -0.0268 -0.1186 -0.8180 -0.1450 -0.0851 0.0202 0.0106 -0.0996 -0.0778 -0.0232 -0.2121 0.0542 -0.1018 0.1068 -0.1639 -0.1751 -0.1527 0.1587 -0.0470 0.1261 -0.1397 -0.0021 0.0587 0.1294 -0.0669 0.0494 -0.1448 -0.1404 -0.1393 -0.0132 0.0571 0.0806 -0.1670 -0.1613 -0.0895 -0.1064 0.0933 -0.1321 0.2390 0.0646 0.0205 0.0299 -0.0902 -0.1442 -0.2466 0.3586 0.0181 -0.0910 0.1601 0.1687 -0.1520 0.1143 0.0819 0.0180 0.0892 0.0919 -0.0077 0.0373 0.1592 -0.0061 -0.0129 0.0739 -0.0702 0.2074 -0.0727 0.2375 -0.1599 0.1310 -0.2440 -0.2754 -0.1036 -0.0461 0.1241 -0.0664 0.1160 0.1597 -0.0258 -0.2868 -0.1400 -0.2447 0.1485 0.1933 0.0595 -0.2127 0.0760 -0.0407 -0.0012 -0.0332 -0.0562 -0.0871 0.0616 0.1202 0.0592 0.1917 -0.0404 0.0918 -0.0073 0.2245 0.1601 0.0546 -0.3064 0.1203 0.0502 -0.0372 0.0431 0.4212 -0.1096 0.0338 -0.1160 0.0421 -0.0624 -0.2059 -0.1137 0.0608 0.1668 -0.2020 0.0745 0.1330 -0.0224 -0.0617 0.0887 -0.0457 0.2564 0.1261 0.3900 -0.0687 0.3051 -0.1016 -0.0812 0.1586 0.1742 0.3848 0.0259 -0.1508 -0.0913 -0.1413 0.0140 -0.0897 -0.2634 0.1103 -0.0593 -0.0395 -0.0836 -0.0562 0.2118 -0.1667 0.1015 0.0016 -0.0198 0.0743 0.0081 -0.0029 0.0730 0.1120 0.0245 0.2809 -0.0738 0.0019 0.2141 0.1446 0.0699 0.2316 -0.1955 -0.1141 0.0825 0.1768 -0.0615 -0.0766 -0.1564 0.1864 -0.0824 -0.0789 0.1728 0.0199 -0.0809 -0.1396 0.0407 0.0246 -0.1991 -0.0534 -0.0394 0.0611 0.3290 -0.1532 -0.0772 0.0040 0.0782 -0.1997 -0.2084 0.1817 -0.0313 -0.0178 0.0898 -0.0725 -0.2354 -0.2094 -0.1685 -0.0009 0.1362 0.3656 -0.1365 0.1486 0.2144 0.1773 0.0387 0.0483 0.1082 0.0100 -0.0465 0.0569 -0.0476 0.2020 -0.0259 -0.0633 -0.4695 0.0988 -0.0301 -0.1524 -0.2032 -0.0811 0.0739 0.1697 0.2488 0.2208 0.0509 -0.1792 -0.1062 -0.0525 0.0995 0.2010 -0.0868 -0.0469 -0.1005 0.1849 -0.0375 -0.1279 0.1648 -0.2727 -0.0274 0.0985 -0.0246 0.0424 -0.0036 0.1349 -0.1219 -0.1276 0.2254 -0.0528 0.1800 -0.0870
hyacinth 0.0203 -0.0781 0.1099 -0.0835 0.0192 0.0590 -0.0479 0.1813 0.0074 -0.0236 0.0697 0.0975 -0.0304 -0.1201 -0.0213 0.1214 0.3240 -0.0983 -0.0841 -0.1055 -0.3912 0.0448 -0.0823 -0.1270 -0.0426 0.0971 0.0476 0.0403 -0.0562 0.0406 -0.0531 -0.0999 -0.0189 -0.1113 -0.0274 -0.0604 0.0713 0.0816 -0.1733 -0.1392 -0.0009 -0.1081 0.0509 0.0300 -0.0379 0.2582 0.1119 0.1715 -0.1636 0.0184 -0.0300 -0.3791 -0.9156 -0.1298 0.0679 0.1774 -0.0064 0.0479 -0.1249 0.0508 -0.1899 0.0888 0.0054 -0.0709 -0.0467 -0.2277 0.0900 0.0489 0.0235 0.0596 0.1609 -0.0626 0.1380 -0.0019 0.0734 -0.1164 0.1414 -0.0438 -0.1178 -0.0226 -0.0001 0.0084 -0.0805 -0.1088 -0.0143 0.1512 0.1774 -0.0921 0.1576 0.1275 -0.1067 0.1156 0.0057 -0.2126 -0.0264 0.0743 -0.0876 -0.0857 0.0358 0.0749 -0.0580 0.0927 -0.1230 0.1210 0.0355 0.1356 -0.0587 0.2991 0.1226 0.1693 -0.0266 0.1988 0.0751 0.4797 -0.3246 0.2678 -0.1341 -0.0802 -0.2504 -0.1524 -0.3128 -0.1751 0.0751 -0.2058 -0.0520 0.1382 -0.2011 -0.2626 -0.0643 0.3106 0.0473 0.1310 0.2845 -0.2532 0.0286 0.0101 0.0898 0.1200 0.0630 0.0674 -0.0476 0.0125 0.0587 0.1447 -0.2114 -0.1833 0.0895 0.1020 0.0154 -0.2463 -0.2038 -0.1476 0.0301 -0.0575 -0.0068 -0.0160 0.0905 -0.1858 -0.2238 0.1463 -0.0773 -0.0036 0.3025 0.1004 0.0902 -0.2867 0.1148 0.0973 -0.0376 0.0439 0.0922 -0.0095 -0.0324 -0.0745 0.2297 -0.2256 0.1681 -0.0212 -0.1339 0.3070 -0.0562 0.2768 0.1572 0.0015 -0.0741 -0.1864 0.1193 0.0686 -0.1606 0.0265 0.1619 -0.0650 0.1013 -0.2038 0.1914 0.2390 -0.3288 0.1680 -0.0948 -0.0498 0.0286 0.0858 0.2006 -0.2045 -0.1177 0.0616 0.0492 0.0349 -0.1661 -0.0152 -0.0219 -0.0049 -0.2402 0.0446 -0.0153 0.2090 -0.0409 -0.0545 -0.0623 0.0067 -0.0381 -0.1210 -0.2374 -0.0029 0.0721 -0.0356 0.1424 0.2009 -0.1003 -0.0380 0.0133 0.2868 0.2182 -0.0534 -0.0438 0.0213 0.0607 -0.3779 0.0157 0.0557 -0.0941 0.0165 -0.1721 0.0437 -0.1618 0.2734 -0.0212 0.0771 0.0726 0.3364 0.1393 0.0448 0.1239 -0.0487 -0.0556 -0.2162 -0.0772 0.0039 -0.0620 0.0737 0.0058 -0.1732 -0.0115 -0.1957 -0.4492 -0.1841 -0.0126 0.1470 -0.1611 0.0680 -0.0676 -0.0906 -0.1735 0.0588 -0.0398 0.3012 0.0104 0.1344 -0.0659 0.0487 -0.0271 0.0467 -0.0475 0.0928 0.0061 0.0036 0.1729 -0.1494 -0.1922 -0.0414 -0.0888 0.2423 -0.1180 -0.0047 -0.0061 0.2395 -0.3380 0.0128 0.1439 0.2846
marigold 0.0157 0.1300 0.0378 0.1292 -0.1222 -0.1978 -0.0344 -0.1236 -0.1487 -0.0117 -0.1406 0.1221 0.1892 -0.0707 0.1041 0.1511 0.0154 0.0095 -0.1794 0.0011 -0.2100 -0.0191 -0.1362 -0.1350 -0.1254 0.0814 -0.0619 0.2495 0.0256 0.0809 -0.0450 -0.0100 0.0185 -0.0419 -0.1078 -0.1167 -0.0340 0.1825 -0.1191 -0.1331 0.0532 -0.1747 -0.0065 -0.0070 0.0181 0.0351 0.1093 -0.0247 -0.0520 -0.0263 0.1090 -0.1010 -0.8483 -0.1207 -0.1671 0.0476 -0.0113 0.1801 -0.0494 -0.0129 -0.0568 0.0265 0.1086 -0.1099 0.0038 -0.0130 -0.1437 -0.0661 -0.0432 0.0030 0.0754 0.0782 0.1016 0.0212 0.0340 0.0717 0.0202 -0.0757 -0.0932 -0.0277 -0.0608 0.1372 -0.0326 -0.0811 -0.1530 -0.0364 0.1663 -0.0689 0.2647 0.0892 -0.1660 0.0435 -0.0907 -0.0964 -0.0649 0.1178 -0.0412 -0.2181 -0.0394 0.3801 -0.2214 0.2486 0.0151 -0.0205 -0.0718 0.2924 0.0119 0.2718 0.2322 0.0673 -0.0708 0.0853 -0.0043 0.2850 -0.0812 0.1275 -0.1499 -0.1163 -0.1716 -0.1536 -0.1236 -0.0120 0.0077 -0.1748 -0.0734 0.0682 0.0348 -0.2442 0.0221 0.1003 0.0018 0.1402 0.1496 -0.2694 0.1160 -0.0374 0.1475 -0.0973 0.1978 0.0323 0.0665 0.1602 -0.0279 0.0938 0.0026 -0.0541 0.0552 0.0037 -0.0013 -0.0105 -0.3208 -0.0244 -0.1162 -0.0364 -0.0288 0.0418 -0.0453 0.0102 -0.1111 -0.0120 -0.0548 -0.0374 0.2661 0.2543 0.0633 -0.2774 0.1770 0.0212 -0.2903 0.0651 0.1154 -0.0046 0.0775 0.1223 0.2384 0.0504 0.1616 -0.0921 -0.0686 0.1332 -0.3074 0.0618 0.0687 -0.0764 0.1910 -0.1811 0.0261 -0.1814 -0.1223 0.0413 0.2459 0.0207 0.1654 0.0325 0.1086 0.1552 -0.1371 -0.0507 -0.0872 0.0262 0.0297 0.0512 -0.0315 0.0687 -0.1514 0.0902 -0.0080 -0.0682 0.1265 0.0531 -0.0166 -0.1838 -0.0994 -0.0559 0.0211 -0.0475 -0.0669 -0.0827 -0.0162 0.0896 -0.2524 -0.1715 -0.2003 0.0444 -0.0035 -0.0353 0.1943 0.1628 -0.1029 -0.1163 -0.0169 0.1784 0.1830 -0.0559 -0.0138 0.0239 0.0413 -0.2221 -0.0864 -0.0298 0.1168 0.0358 -0.0935 0.1561 -0.0121 -0.1836 -0.1407 -0.1787 -0.0072 0.3383 0.0040 0.1316 0.2639 -0.0764 0.0362 0.0632 -0.1268 -0.0870 -0.1248 0.0309 -0.0193 -0.0732 -0.1365 -0.2054 -0.4505 -0.1855 -0.1140 -0.0001 -0.1680 0.1123 0.0803 -0.0939 0.0006 0.1413 0.1930 0.1721 0.2039 0.1166 -0.0352 0.0178 -0.1092 -0.1068 -0.0070 0.0578 0.2072 0.1270 0.1416 -0.1799 -0.0587 0.1501 -0.1290 0.0555 -0.1987 0.0683 0.0426 0.0163 -0.0797 -0.1287 0.1448 0.1119
poppy 0.1361 -0.0351 -0.1162 -0.2868 0.1347 -0.0043 -0.0631 -0.0098 -0.3563 0.1710 -0.0761 -0.1549 -0.0351 0.1628 0.1030 -0.0831 0.0006 0.0895 -0.0239 0.0293 -0.3618 0.0550 0.0338 -0.0794 -0.0454 0.0347 -0.0651 0.0155 0.3163 0.0361 -0.1061 0.1215 -0.0560 -0.0751 0.1337 0.1730 -0.0447 0.2298 0.0168 0.0772 -0.1639 -0.0825 -0.0661 0.0183 0.0099 -0.0744 0.0267 0.3015 0.3194 -0.3060 -0.0384 -0.1661 -0.8136 -0.1086 -0.0555 -0.1621 0.0271 -0.0983 0.0302 0.0793 -0.0833 0.0105 0.1251 -0.0464 -0.0532 -0.0239 -0.1722 -0.3840 -0.1553 -0.0757 0.2251 -0.1502 -0.0853 0.1120 0.0422 0.0026 -0.2007 0.0648 0.0123 -0.0239 -0.0427 0.2385 -0.2327 -0.2231 0.1979 -0.0718 0.2653 -0.0751 0.3335 0.1401 0.1124 0.0199 0.1704 -0.1230 -0.2077 0.0215 -0.1286 -0.1774 -0.0942 0.1657 -0.0263 0.2587 0.1864 0.0080 0.1311 0.1532 0.0236 0.2071 0.2423 0.0163 -0.0376 -0.0962 0.2412 0.1501 -0.0873 0.0586 0.2506 -0.2217 -0.2511 -0.2982 -0.1662 0.0163 0.0296 -0.0429 -0.1562 0.0273 0.0313 -0.1206 -0.0622 -0.2155 0.1749 0.3735 0.0777 0.1598 0.2110 -0.0306 0.0929 0.0684 0.0438 0.0314 -0.1308 0.0586 -0.0962 0.0693 -0.1270 -0.0027 0.0400 -0.0794 -0.0910 -0.2128 -0.2834 -0.0645 0.2118 0.1421 0.3551 0.2335 -0.2054 0.0665 -0.0603 -0.1799 0.0816 -0.1871 0.0723 0.0418 0.1875 -0.2776 0.0755 0.1475 -0.2933 -0.2090 -0.0198 0.0774 0.2024 0.2092 0.3123 -0.1560 0.2098 -0.1587 0.0339 0.0635 -0.1049 0.0134 0.0496 -0.1131 0.2635 -0.0921 -0.1331 -0.1614 -0.1691 0.2161 0.1543 -0.1444 -0.0909 -0.2440 0.2278 -0.1840 0.1588 0.0457 0.1047 -0.0862 0.0567 0.1265 0.0770 0.0322 0.1066 0.0043 0.1048 0.0640 0.2057 -0.0069 0.0802 -0.0909 -0.1076 -0.0711 0.0578 -0.1033 0.0014 0.1553 0.0474 0.1029 0.1073 -0.1956 -0.1677 0.1395 0.0500 -0.2845 -0.1014 -0.0541 -0.1263 -0.1473 0.1146 0.1141 0.2386 -0.0252 -0.0142 -0.1776 0.0309 -0.1935 -0.1248 -0.0916 0.0039 -0.0466 -0.2168 0.1856 -0.0533 -0.1726 -0.0173 0.0265 0.0688 0.3613 -0.0089 0.2819 0.0384 0.2410 0.0156 -0.0096 0.0360 -0.1347 -0.2803 0.1775 -0.1148 0.3080 -0.0998 -0.2463 -0.3265 -0.1669 -0.2929 0.3786 -0.2003 0.3741 0.0598 0.0089 -0.2308 0.2161 0.0031 0.0502 -0.0451 0.1702 0.0229 0.1121 -0.0193 0.0753 -0.1605 0.1279 0.2610 0.3082 0.0933 -0.1252 -0.0759 -0.1201 -0.1380 -0.1278 -0.0195 -0.1513 0.0355 0.0953 0.0042 0.0281 0.1270 0.0186
azalea 0.0566 -0.1828 -0.0747 -0.1030 -0.1459 -0.1806 -0.0089 -0.0076 -0.0335 0.0622 0.0411 -0.1435 0.2872 -0.1989 0.0258 -0.1209 0.0872 -0.0622 0.0871 -0.1908 -0.4314 -0.0718 -0.0566 -0.0449 0.0194 0.1160 -0.1278 0.2384 -0.2140 0.0521 -0.0289 -0.1165 -0.0604 -0.2992 -0.0499 -0.0265 -0.1418 -0.0123 -0.1144 0.1087 -0.2264 -0.0064 -0.0197 -0.1160 -0.2275 0.1779 0.0570 -0.1424 -0.2219 0.0141 0.0107 -0.2566 -0.9071 -0.0189 -0.0309 0.0879 -0.0062 -0.1862 0.1116 -0.0790 0.0553 -0.0310 0.0652 0.0220 -0.1483 -0.1036 -0.2829 -0.0619 -0.0037 0.2324 0.1869 0.0109 -0.0816 -0.0728 0.1120 0.1434 0.0479 -0.0300 0.1186 -0.0524 -0.0118 0.0605 -0.0940 -0.2320 0.1066 0.1355 0.1844 0.0319 0.2717 0.1171 -0.0483 0.0059 -0.0491 -0.2496 0.0430 0.0497 -0.1353 -0.1124 0.1038 -0.0770 -0.1662 0.2072 0.0615 -0.2145 -0.0769 0.2541 -0.0013 0.2144 0.0649 -0.0733 0.0590 0.0449 0.1187 0.2395 0.0099 0.2284 -0.0289 -0.0864 -0.0782 -0.1549 -0.2468 0.1502 0.1491 -0.0044 -0.2048 0.2115 0.1344 -0.2225 0.0460 -0.1129 -0.0502 0.1251 -0.0504 -0.1366 0.1740 0.0530 0.1440 -0.1315 -0.0908 -0.2227 0.0413 -0.2381 0.1306 0.1220 -0.1561 -0.2066 -0.0316 -0.1138 -0.0122 -0.0233 -0.3437 0.0469 0.0257 0.1142 -0.3401 0.0060 0.2210 -0.0447 -0.0764 0.1364 -0.0610 0.0218 0.0174 -0.0324 0.1328 -0.0091 0.1378 0.0131 -0.1419 -0.0862 0.1003 -0.0345 0.0728 0.1667 0.1604 -0.1783 0.2415 0.0867 -0.2395 0.0800 -0.0752 0.2001 -0.1475 0.0541 -0.1153 -0.1042 0.2019 0.0319 -0.2049 -0.0443 -0.0573 0.0749 0.0850 0.0393 0.1113 0.2298 -0.1159 -0.0858 0.0021 0.0296 0.2008 0.0392 0.1476 0.2165 0.0561 0.0554 -0.2212 -0.1184 0.2287 -0.0652 0.0366 0.1253 -0.1220 0.0421 -0.0885 -0.0862 0.1539 -0.2953 0.0449 0.1587 -0.2471 0.0331 -0.1005 -0.1032 -0.1644 -0.1014 0.2906 -0.2398 -0.0614 -0.1004 0.0167 0.0198 0.1628 -0.1465 0.0411 -0.0371 -0.1065 -0.1382 -0.0810 0.0714 -0.1718 -0.0326 -0.0659 -0.1112 -0.0251 0.0918 0.1762 0.1661 0.0715 0.4068 -0.0313 -0.0221 0.2206 0.1709 0.0144 -0.0001 -0.1341 0.0367 -0.4081 -0.0073 -0.1840 0.0611 -0.0678 -0.0526 -0.5422 0.1258 0.0458 -0.0314 -0.2671 -0.0292 -0.0417 0.0214 0.0133 0.1487 0.0521 0.1181 0.0359 0.1407 0.0900 0.3636 0.0317 -0.0549 -0.3592 0.0572 -0.0800 0.1896 0.0420 -0.1971 -0.1008 0.1447 -0.0631 -0.0788 -0.0431 -0.0155 0.0285 -0.0368 -0.2709 -0.1141 -0.0058 0.0860